{
  "tanh_bptt": {
    "n_samples": 42377,
    "n_features": 48,
    "n_folds": 5,
    "binary": true,
    "accuracy_mean": 0.8981050949340217,
    "accuracy_std": 0.0024916794284640426,
    "accuracy_folds": [
      0.9009,
      0.8957,
      0.8951,
      0.901,
      0.8978
    ],
    "confusion_matrix": [
      [
        19443,
        2005
      ],
      [
        2313,
        18616
      ]
    ],
    "coef_mean": [
      [
        0.3482128978134088,
        0.1586054116008867,
        -0.42618398460445517,
        -0.7612734130606239,
        0.2825285142574222,
        -0.22021592949131752,
        -0.20642243135496874,
        -0.3866609350270293,
        0.11485100470410528,
        -1.0615970924189722,
        -0.2738780415225602,
        0.15810103217189883,
        -0.5088863313906915,
        0.024905068195406152,
        0.8943089898624942,
        -0.37069937321775476,
        -0.12198510609951282,
        -0.691427462383569,
        -0.03631857281337932,
        0.15985122622225012,
        -0.3756798456116588,
        -0.2982295984650344,
        -0.18443845467266742,
        -0.023827344390453524,
        -0.353159749971959,
        0.2093253078281494,
        0.004777063774596968,
        0.13032519893932687,
        -0.37808214006231966,
        -0.39114081621762964,
        0.6597319909619825,
        -0.3342126211978504,
        -0.30008520313249315,
        0.3098313105486586,
        0.4335870947769996,
        -0.7316472736310086,
        -0.7762193185066893,
        0.46064509559447797,
        -0.24528274676991785,
        -1.3962769805997046,
        -0.2293561668435497,
        -0.3600038506424361,
        0.18712677651445334,
        -0.4137041011232049,
        0.039965260256418944,
        -0.4641724742399028,
        0.44450280168519934,
        -0.6383305972259745
      ]
    ],
    "intercept_mean": -0.014098200337656469,
    "auroc_mean": 0.9488765577353313,
    "auroc_std": 0.0022118124687910104,
    "auroc_folds": [
      0.9515,
      0.9498,
      0.945,
      0.9499,
      0.9481
    ],
    "model_id": "tanh_bptt"
  },
  "tanh_pc": {
    "n_samples": 42377,
    "n_features": 48,
    "n_folds": 5,
    "binary": true,
    "accuracy_mean": 0.7985462141239328,
    "accuracy_std": 0.005425906404599854,
    "accuracy_folds": [
      0.8013,
      0.8029,
      0.7903,
      0.794,
      0.8042
    ],
    "confusion_matrix": [
      [
        17932,
        3516
      ],
      [
        5021,
        15908
      ]
    ],
    "coef_mean": [
      [
        0.09441986975876891,
        -0.1267845013917468,
        1.3311946727780106,
        0.5775682428903024,
        -2.665403015328276,
        1.4813344051271056,
        0.6304571168841846,
        0.30171090544961854,
        0.7968457793015882,
        -0.399415712520062,
        -0.42635572174256425,
        -2.23383947449294,
        0.7757052429888697,
        1.50703012627559,
        -0.48433117868466,
        -0.6039261052703253,
        -0.012372686207866707,
        0.5151266969705082,
        -1.2767206636271957,
        0.28507484792659726,
        0.07058788429896547,
        1.4642172100254964,
        -0.8135481048718318,
        -0.10421111744337663,
        1.636789292872259,
        0.28546002409774845,
        0.434682706796384,
        -1.9423697060997411,
        0.552250064276467,
        0.8616440110213486,
        -0.9593180145449083,
        -0.21941857415520807,
        0.32791937833677565,
        0.8228407197078452,
        0.16498000591502732,
        -0.9729994636563095,
        -0.07400876938342803,
        0.7644015420114689,
        -0.0015294975778621129,
        -1.6425199778225636,
        1.319536581232708,
        0.9014784816411687,
        -0.6300264841011113,
        -0.5920461820583783,
        -0.32656063985573475,
        0.5402530077130974,
        -0.043257957647220915,
        -1.1335149816536092
      ]
    ],
    "intercept_mean": -0.05842985081856972,
    "auroc_mean": 0.8693211919626457,
    "auroc_std": 0.0047052693273945765,
    "auroc_folds": [
      0.873,
      0.8695,
      0.8645,
      0.8637,
      0.8759
    ],
    "model_id": "tanh_pc"
  },
  "gru": {
    "n_samples": 42377,
    "n_features": 48,
    "n_folds": 5,
    "binary": true,
    "accuracy_mean": 0.9011019446196166,
    "accuracy_std": 0.0023454159793720895,
    "accuracy_folds": [
      0.9031,
      0.902,
      0.8972,
      0.9035,
      0.8997
    ],
    "confusion_matrix": [
      [
        19429,
        2019
      ],
      [
        2172,
        18757
      ]
    ],
    "coef_mean": [
      [
        -0.03061495893665972,
        0.04650280404099809,
        0.008188453080783486,
        -0.1322974593627137,
        0.1840613253752985,
        -0.031332738756114795,
        0.3872332151902939,
        -0.2933397384341482,
        -0.15050024459245895,
        -0.24349420640802535,
        0.15371948192152413,
        0.20965609233180996,
        0.167168883545285,
        0.3184995828305369,
        0.13185959926685645,
        0.30383445895013284,
        -0.035539445539336356,
        -0.10970202044963336,
        -0.32728592386249605,
        0.40828403537770147,
        -0.15553932920521593,
        -0.062062807352506424,
        -0.9260533357729033,
        0.30844225901455413,
        -0.23032693891194703,
        0.2998556803022978,
        0.1306356792052282,
        -0.6410090595509648,
        0.33901618822060664,
        -0.09480380203322293,
        -0.19422605342881713,
        0.29114286270526496,
        0.5257258457848253,
        0.32177205405389875,
        0.43107176761915555,
        -0.211704111582721,
        -0.08684990087058647,
        0.23983228919745708,
        0.6217354456333866,
        -0.012809641763427864,
        -0.7463227284812067,
        0.12842237878243143,
        -0.33991171265350784,
        0.3964060246196971,
        0.5171823055565035,
        -0.11369580632581129,
        -0.026974809164955815,
        0.11961433445218947
      ]
    ],
    "intercept_mean": -0.03381912582808163,
    "auroc_mean": 0.9504436172480453,
    "auroc_std": 0.0026622028976066078,
    "auroc_folds": [
      0.9534,
      0.9507,
      0.9454,
      0.9515,
      0.9512
    ],
    "model_id": "gru"
  },
  "bayes": {
    "n_samples": 42377,
    "n_features": 1,
    "n_folds": 5,
    "binary": true,
    "accuracy_mean": 0.7902162037249719,
    "accuracy_std": 0.005624638588896097,
    "accuracy_folds": [
      0.7929,
      0.7954,
      0.7824,
      0.7845,
      0.7958
    ],
    "confusion_matrix": [
      [
        16902,
        4546
      ],
      [
        4344,
        16585
      ]
    ],
    "coef_mean": [
      [
        1.4090407115965764
      ]
    ],
    "intercept_mean": -0.03705424501807157,
    "auroc_mean": 0.8359934759118735,
    "auroc_std": 0.006031536152053125,
    "auroc_folds": [
      0.844,
      0.8358,
      0.827,
      0.8323,
      0.8409
    ],
    "model_id": "bayes"
  }
}